digraph Tree {
node [shape=box, style="filled, rounded", color="black", fontname=helvetica] ;
edge [fontname=helvetica] ;
0 [label="petal length (cm) <= 2.6\ngini = 0.66\nsamples = 94\nvalue = [42, 58, 50]\nclass = versicolor", fillcolor="#effdf5"] ;
1 [label="gini = 0.0\nsamples = 26\nvalue = [42, 0, 0]\nclass = setosa", fillcolor="#e58139"] ;
0 -> 1 [labeldistance=2.5, labelangle=45, headlabel="True"] ;
2 [label="petal length (cm) <= 4.75\ngini = 0.5\nsamples = 68\nvalue = [0, 58, 50]\nclass = versicolor", fillcolor="#e4fbee"] ;
0 -> 2 [labeldistance=2.5, labelangle=-45, headlabel="False"] ;
3 [label="petal width (cm) <= 1.65\ngini = 0.04\nsamples = 33\nvalue = [0, 55, 1]\nclass = versicolor", fillcolor="#3de583"] ;
2 -> 3 ;
4 [label="gini = 0.0\nsamples = 32\nvalue = [0, 55, 0]\nclass = versicolor", fillcolor="#39e581"] ;
3 -> 4 ;
5 [label="gini = 0.0\nsamples = 1\nvalue = [0, 0, 1]\nclass = virginica", fillcolor="#8139e5"] ;
3 -> 5 ;
6 [label="petal width (cm) <= 1.7\ngini = 0.11\nsamples = 35\nvalue = [0, 3, 49]\nclass = virginica", fillcolor="#8945e7"] ;
2 -> 6 ;
7 [label="petal width (cm) <= 1.55\ngini = 0.35\nsamples = 4\nvalue = [0, 2, 7]\nclass = virginica", fillcolor="#a572ec"] ;
6 -> 7 ;
8 [label="gini = 0.0\nsamples = 3\nvalue = [0, 0, 7]\nclass = virginica", fillcolor="#8139e5"] ;
7 -> 8 ;
9 [label="gini = 0.0\nsamples = 1\nvalue = [0, 2, 0]\nclass = versicolor", fillcolor="#39e581"] ;
7 -> 9 ;
10 [label="petal length (cm) <= 4.85\ngini = 0.05\nsamples = 31\nvalue = [0, 1, 42]\nclass = virginica", fillcolor="#843ee6"] ;
6 -> 10 ;
11 [label="sepal width (cm) <= 3.1\ngini = 0.44\nsamples = 3\nvalue = [0, 1, 2]\nclass = virginica", fillcolor="#c09cf2"] ;
10 -> 11 ;
12 [label="gini = 0.0\nsamples = 2\nvalue = [0, 0, 2]\nclass = virginica", fillcolor="#8139e5"] ;
11 -> 12 ;
13 [label="gini = 0.0\nsamples = 1\nvalue = [0, 1, 0]\nclass = versicolor", fillcolor="#39e581"] ;
11 -> 13 ;
14 [label="gini = 0.0\nsamples = 28\nvalue = [0, 0, 40]\nclass = virginica", fillcolor="#8139e5"] ;
10 -> 14 ;
}